digraph Tree {
node [shape=box, style="filled, rounded", color="black", fontname="helvetica"] ;
edge [fontname="helvetica"] ;
0 [label="Glucose <= 127.5\ngini = 0.446\nsamples = 362\nvalue = [383, 193]", fillcolor="#f2c09d"] ;
1 [label="Glucose <= 99.5\ngini = 0.285\nsamples = 221\nvalue = [293, 61]", fillcolor="#ea9b62"] ;
0 -> 1 [labeldistance=2.5, labelangle=45, headlabel="True"] ;
2 [label="SkinThickness <= 30.5\ngini = 0.132\nsamples = 93\nvalue = [131, 10]", fillcolor="#e78b48"] ;
1 -> 2 ;
3 [label="Pregnancies <= 11.5\ngini = 0.067\nsamples = 74\nvalue = [112, 4]", fillcolor="#e68640"] ;
2 -> 3 ;
4 [label="Age <= 31.5\ngini = 0.018\nsamples = 73\nvalue = [112, 1]", fillcolor="#e5823b"] ;
3 -> 4 ;
5 [label="gini = 0.0\nsamples = 58\nvalue = [90, 0]", fillcolor="#e58139"] ;
4 -> 5 ;
6 [label="Age <= 33.5\ngini = 0.083\nsamples = 15\nvalue = [22, 1]", fillcolor="#e68742"] ;
4 -> 6 ;
7 [label="BMI <= 26.1\ngini = 0.444\nsamples = 2\nvalue = [2, 1]", fillcolor="#f2c09c"] ;
6 -> 7 ;
8 [label="gini = 0.0\nsamples = 1\nvalue = [2, 0]", fillcolor="#e58139"] ;
7 -> 8 ;
9 [label="gini = 0.0\nsamples = 1\nvalue = [0, 1]", fillcolor="#399de5"] ;
7 -> 9 ;
10 [label="gini = 0.0\nsamples = 13\nvalue = [20, 0]", fillcolor="#e58139"] ;
6 -> 10 ;
11 [label="gini = 0.0\nsamples = 1\nvalue = [0, 3]", fillcolor="#399de5"] ;
3 -> 11 ;
12 [label="SkinThickness <= 32.5\ngini = 0.365\nsamples = 19\nvalue = [19, 6]", fillcolor="#eda978"] ;
2 -> 12 ;
13 [label="Insulin <= 185.0\ngini = 0.496\nsamples = 8\nvalue = [6, 5]", fillcolor="#fbeade"] ;
12 -> 13 ;
14 [label="Pregnancies <= 1.0\ngini = 0.469\nsamples = 7\nvalue = [3, 5]", fillcolor="#b0d8f5"] ;
13 -> 14 ;
15 [label="gini = 0.0\nsamples = 2\nvalue = [2, 0]", fillcolor="#e58139"] ;
14 -> 15 ;
16 [label="DiabetesPedigreeFunction <= 0.306\ngini = 0.278\nsamples = 5\nvalue = [1, 5]", fillcolor="#61b1ea"] ;
14 -> 16 ;
17 [label="gini = 0.0\nsamples = 1\nvalue = [1, 0]", fillcolor="#e58139"] ;
16 -> 17 ;
18 [label="gini = 0.0\nsamples = 4\nvalue = [0, 5]", fillcolor="#399de5"] ;
16 -> 18 ;
19 [label="gini = 0.0\nsamples = 1\nvalue = [3, 0]", fillcolor="#e58139"] ;
13 -> 19 ;
20 [label="Insulin <= 18.5\ngini = 0.133\nsamples = 11\nvalue = [13, 1]", fillcolor="#e78b48"] ;
12 -> 20 ;
21 [label="Glucose <= 92.5\ngini = 0.32\nsamples = 5\nvalue = [4, 1]", fillcolor="#eca06a"] ;
20 -> 21 ;
22 [label="gini = 0.0\nsamples = 1\nvalue = [0, 1]", fillcolor="#399de5"] ;
21 -> 22 ;
23 [label="gini = 0.0\nsamples = 4\nvalue = [4, 0]", fillcolor="#e58139"] ;
21 -> 23 ;
24 [label="gini = 0.0\nsamples = 6\nvalue = [9, 0]", fillcolor="#e58139"] ;
20 -> 24 ;
25 [label="BloodPressure <= 59.0\ngini = 0.364\nsamples = 128\nvalue = [162, 51]", fillcolor="#eda977"] ;
1 -> 25 ;
26 [label="Pregnancies <= 7.5\ngini = 0.17\nsamples = 18\nvalue = [29, 3]", fillcolor="#e88e4d"] ;
25 -> 26 ;
27 [label="gini = 0.0\nsamples = 17\nvalue = [29, 0]", fillcolor="#e58139"] ;
26 -> 27 ;
28 [label="gini = 0.0\nsamples = 1\nvalue = [0, 3]", fillcolor="#399de5"] ;
26 -> 28 ;
29 [label="DiabetesPedigreeFunction <= 0.513\ngini = 0.39\nsamples = 110\nvalue = [133, 48]", fillcolor="#eeae80"] ;
25 -> 29 ;
30 [label="Pregnancies <= 12.5\ngini = 0.267\nsamples = 70\nvalue = [101, 19]", fillcolor="#ea995e"] ;
29 -> 30 ;
31 [label="BMI <= 31.95\ngini = 0.225\nsamples = 68\nvalue = [101, 15]", fillcolor="#e99456"] ;
30 -> 31 ;
32 [label="Pregnancies <= 7.5\ngini = 0.063\nsamples = 34\nvalue = [59, 2]", fillcolor="#e68540"] ;
31 -> 32 ;
33 [label="Age <= 33.5\ngini = 0.037\nsamples = 28\nvalue = [52, 1]", fillcolor="#e6833d"] ;
32 -> 33 ;
34 [label="gini = 0.0\nsamples = 23\nvalue = [40, 0]", fillcolor="#e58139"] ;
33 -> 34 ;
35 [label="DiabetesPedigreeFunction <= 0.251\ngini = 0.142\nsamples = 5\nvalue = [12, 1]", fillcolor="#e78c49"] ;
33 -> 35 ;
36 [label="gini = 0.0\nsamples = 3\nvalue = [11, 0]", fillcolor="#e58139"] ;
35 -> 36 ;
37 [label="SkinThickness <= 23.5\ngini = 0.5\nsamples = 2\nvalue = [1, 1]", fillcolor="#ffffff"] ;
35 -> 37 ;
38 [label="gini = 0.0\nsamples = 1\nvalue = [0, 1]", fillcolor="#399de5"] ;
37 -> 38 ;
39 [label="gini = 0.0\nsamples = 1\nvalue = [1, 0]", fillcolor="#e58139"] ;
37 -> 39 ;
40 [label="Pregnancies <= 9.0\ngini = 0.219\nsamples = 6\nvalue = [7, 1]", fillcolor="#e99355"] ;
32 -> 40 ;
41 [label="Age <= 30.5\ngini = 0.375\nsamples = 3\nvalue = [3, 1]", fillcolor="#eeab7b"] ;
40 -> 41 ;
42 [label="gini = 0.0\nsamples = 1\nvalue = [0, 1]", fillcolor="#399de5"] ;
41 -> 42 ;
43 [label="gini = 0.0\nsamples = 2\nvalue = [3, 0]", fillcolor="#e58139"] ;
41 -> 43 ;
44 [label="gini = 0.0\nsamples = 3\nvalue = [4, 0]", fillcolor="#e58139"] ;
40 -> 44 ;
45 [label="Pregnancies <= 5.5\ngini = 0.361\nsamples = 34\nvalue = [42, 13]", fillcolor="#eda876"] ;
31 -> 45 ;
46 [label="Age <= 34.0\ngini = 0.136\nsamples = 26\nvalue = [38, 3]", fillcolor="#e78b49"] ;
45 -> 46 ;
47 [label="BloodPressure <= 93.0\ngini = 0.061\nsamples = 20\nvalue = [31, 1]", fillcolor="#e6853f"] ;
46 -> 47 ;
48 [label="gini = 0.0\nsamples = 19\nvalue = [31, 0]", fillcolor="#e58139"] ;
47 -> 48 ;
49 [label="gini = 0.0\nsamples = 1\nvalue = [0, 1]", fillcolor="#399de5"] ;
47 -> 49 ;
50 [label="BMI <= 34.05\ngini = 0.346\nsamples = 6\nvalue = [7, 2]", fillcolor="#eca572"] ;
46 -> 50 ;
51 [label="Age <= 41.5\ngini = 0.444\nsamples = 3\nvalue = [1, 2]", fillcolor="#9ccef2"] ;
50 -> 51 ;
52 [label="gini = 0.0\nsamples = 2\nvalue = [0, 2]", fillcolor="#399de5"] ;
51 -> 52 ;
53 [label="gini = 0.0\nsamples = 1\nvalue = [1, 0]", fillcolor="#e58139"] ;
51 -> 53 ;
54 [label="gini = 0.0\nsamples = 3\nvalue = [6, 0]", fillcolor="#e58139"] ;
50 -> 54 ;
55 [label="DiabetesPedigreeFunction <= 0.214\ngini = 0.408\nsamples = 8\nvalue = [4, 10]", fillcolor="#88c4ef"] ;
45 -> 55 ;
56 [label="Age <= 52.5\ngini = 0.375\nsamples = 4\nvalue = [3, 1]", fillcolor="#eeab7b"] ;
55 -> 56 ;
57 [label="gini = 0.0\nsamples = 2\nvalue = [2, 0]", fillcolor="#e58139"] ;
56 -> 57 ;
58 [label="Insulin <= 90.0\ngini = 0.5\nsamples = 2\nvalue = [1, 1]", fillcolor="#ffffff"] ;
56 -> 58 ;
59 [label="gini = 0.0\nsamples = 1\nvalue = [0, 1]", fillcolor="#399de5"] ;
58 -> 59 ;
60 [label="gini = 0.0\nsamples = 1\nvalue = [1, 0]", fillcolor="#e58139"] ;
58 -> 60 ;
61 [label="Glucose <= 120.0\ngini = 0.18\nsamples = 4\nvalue = [1, 9]", fillcolor="#4fa8e8"] ;
55 -> 61 ;
62 [label="gini = 0.0\nsamples = 3\nvalue = [0, 9]", fillcolor="#399de5"] ;
61 -> 62 ;
63 [label="gini = 0.0\nsamples = 1\nvalue = [1, 0]", fillcolor="#e58139"] ;
61 -> 63 ;
64 [label="gini = 0.0\nsamples = 2\nvalue = [0, 4]", fillcolor="#399de5"] ;
30 -> 64 ;
65 [label="BMI <= 27.35\ngini = 0.499\nsamples = 40\nvalue = [32, 29]", fillcolor="#fdf3ec"] ;
29 -> 65 ;
66 [label="gini = 0.0\nsamples = 11\nvalue = [18, 0]", fillcolor="#e58139"] ;
65 -> 66 ;
67 [label="Pregnancies <= 3.5\ngini = 0.439\nsamples = 29\nvalue = [14, 29]", fillcolor="#99ccf2"] ;
65 -> 67 ;
68 [label="Insulin <= 101.0\ngini = 0.475\nsamples = 12\nvalue = [11, 7]", fillcolor="#f6d1b7"] ;
67 -> 68 ;
69 [label="DiabetesPedigreeFunction <= 0.908\ngini = 0.42\nsamples = 7\nvalue = [3, 7]", fillcolor="#8ec7f0"] ;
68 -> 69 ;
70 [label="Glucose <= 117.0\ngini = 0.346\nsamples = 6\nvalue = [2, 7]", fillcolor="#72b9ec"] ;
69 -> 70 ;
71 [label="BMI <= 31.65\ngini = 0.219\nsamples = 5\nvalue = [1, 7]", fillcolor="#55abe9"] ;
70 -> 71 ;
72 [label="Insulin <= 41.0\ngini = 0.444\nsamples = 2\nvalue = [1, 2]", fillcolor="#9ccef2"] ;
71 -> 72 ;
73 [label="gini = 0.0\nsamples = 1\nvalue = [0, 2]", fillcolor="#399de5"] ;
72 -> 73 ;
74 [label="gini = 0.0\nsamples = 1\nvalue = [1, 0]", fillcolor="#e58139"] ;
72 -> 74 ;
75 [label="gini = 0.0\nsamples = 3\nvalue = [0, 5]", fillcolor="#399de5"] ;
71 -> 75 ;
76 [label="gini = 0.0\nsamples = 1\nvalue = [1, 0]", fillcolor="#e58139"] ;
70 -> 76 ;
77 [label="gini = 0.0\nsamples = 1\nvalue = [1, 0]", fillcolor="#e58139"] ;
69 -> 77 ;
78 [label="gini = 0.0\nsamples = 5\nvalue = [8, 0]", fillcolor="#e58139"] ;
68 -> 78 ;
79 [label="DiabetesPedigreeFunction <= 0.668\ngini = 0.211\nsamples = 17\nvalue = [3, 22]", fillcolor="#54aae9"] ;
67 -> 79 ;
80 [label="gini = 0.0\nsamples = 6\nvalue = [0, 10]", fillcolor="#399de5"] ;
79 -> 80 ;
81 [label="DiabetesPedigreeFunction <= 0.715\ngini = 0.32\nsamples = 11\nvalue = [3, 12]", fillcolor="#6ab6ec"] ;
79 -> 81 ;
82 [label="Pregnancies <= 7.0\ngini = 0.444\nsamples = 3\nvalue = [2, 1]", fillcolor="#f2c09c"] ;
81 -> 82 ;
83 [label="gini = 0.0\nsamples = 2\nvalue = [2, 0]", fillcolor="#e58139"] ;
82 -> 83 ;
84 [label="gini = 0.0\nsamples = 1\nvalue = [0, 1]", fillcolor="#399de5"] ;
82 -> 84 ;
85 [label="Age <= 29.5\ngini = 0.153\nsamples = 8\nvalue = [1, 11]", fillcolor="#4ba6e7"] ;
81 -> 85 ;
86 [label="Insulin <= 49.5\ngini = 0.5\nsamples = 2\nvalue = [1, 1]", fillcolor="#ffffff"] ;
85 -> 86 ;
87 [label="gini = 0.0\nsamples = 1\nvalue = [1, 0]", fillcolor="#e58139"] ;
86 -> 87 ;
88 [label="gini = 0.0\nsamples = 1\nvalue = [0, 1]", fillcolor="#399de5"] ;
86 -> 88 ;
89 [label="gini = 0.0\nsamples = 6\nvalue = [0, 10]", fillcolor="#399de5"] ;
85 -> 89 ;
90 [label="Age <= 22.5\ngini = 0.482\nsamples = 141\nvalue = [90, 132]", fillcolor="#c0e0f7"] ;
0 -> 90 [labeldistance=2.5, labelangle=-45, headlabel="False"] ;
91 [label="gini = 0.0\nsamples = 11\nvalue = [11, 0]", fillcolor="#e58139"] ;
90 -> 91 ;
92 [label="Age <= 60.5\ngini = 0.468\nsamples = 130\nvalue = [79, 132]", fillcolor="#afd8f5"] ;
90 -> 92 ;
93 [label="DiabetesPedigreeFunction <= 0.313\ngini = 0.452\nsamples = 120\nvalue = [68, 129]", fillcolor="#a1d1f3"] ;
92 -> 93 ;
94 [label="Age <= 40.5\ngini = 0.5\nsamples = 45\nvalue = [36, 37]", fillcolor="#fafcfe"] ;
93 -> 94 ;
95 [label="BloodPressure <= 63.0\ngini = 0.473\nsamples = 25\nvalue = [24, 15]", fillcolor="#f5d0b5"] ;
94 -> 95 ;
96 [label="gini = 0.0\nsamples = 5\nvalue = [0, 6]", fillcolor="#399de5"] ;
95 -> 96 ;
97 [label="Pregnancies <= 2.5\ngini = 0.397\nsamples = 20\nvalue = [24, 9]", fillcolor="#efb083"] ;
95 -> 97 ;
98 [label="gini = 0.0\nsamples = 6\nvalue = [9, 0]", fillcolor="#e58139"] ;
97 -> 98 ;
99 [label="BMI <= 34.6\ngini = 0.469\nsamples = 14\nvalue = [15, 9]", fillcolor="#f5cdb0"] ;
97 -> 99 ;
100 [label="Glucose <= 131.0\ngini = 0.133\nsamples = 8\nvalue = [13, 1]", fillcolor="#e78b48"] ;
99 -> 100 ;
101 [label="BloodPressure <= 67.0\ngini = 0.5\nsamples = 2\nvalue = [1, 1]", fillcolor="#ffffff"] ;
100 -> 101 ;
102 [label="gini = 0.0\nsamples = 1\nvalue = [0, 1]", fillcolor="#399de5"] ;
101 -> 102 ;
103 [label="gini = 0.0\nsamples = 1\nvalue = [1, 0]", fillcolor="#e58139"] ;
101 -> 103 ;
104 [label="gini = 0.0\nsamples = 6\nvalue = [12, 0]", fillcolor="#e58139"] ;
100 -> 104 ;
105 [label="Glucose <= 132.5\ngini = 0.32\nsamples = 6\nvalue = [2, 8]", fillcolor="#6ab6ec"] ;
99 -> 105 ;
106 [label="gini = 0.0\nsamples = 2\nvalue = [2, 0]", fillcolor="#e58139"] ;
105 -> 106 ;
107 [label="gini = 0.0\nsamples = 4\nvalue = [0, 8]", fillcolor="#399de5"] ;
105 -> 107 ;
108 [label="Glucose <= 156.0\ngini = 0.457\nsamples = 20\nvalue = [12, 22]", fillcolor="#a5d2f3"] ;
94 -> 108 ;
109 [label="DiabetesPedigreeFunction <= 0.224\ngini = 0.499\nsamples = 14\nvalue = [12, 11]", fillcolor="#fdf5ef"] ;
108 -> 109 ;
110 [label="DiabetesPedigreeFunction <= 0.136\ngini = 0.457\nsamples = 9\nvalue = [11, 6]", fillcolor="#f3c6a5"] ;
109 -> 110 ;
111 [label="gini = 0.0\nsamples = 2\nvalue = [0, 3]", fillcolor="#399de5"] ;
110 -> 111 ;
112 [label="BMI <= 29.7\ngini = 0.337\nsamples = 7\nvalue = [11, 3]", fillcolor="#eca36f"] ;
110 -> 112 ;
113 [label="BloodPressure <= 70.5\ngini = 0.444\nsamples = 2\nvalue = [1, 2]", fillcolor="#9ccef2"] ;
112 -> 113 ;
114 [label="gini = 0.0\nsamples = 1\nvalue = [1, 0]", fillcolor="#e58139"] ;
113 -> 114 ;
115 [label="gini = 0.0\nsamples = 1\nvalue = [0, 2]", fillcolor="#399de5"] ;
113 -> 115 ;
116 [label="SkinThickness <= 31.0\ngini = 0.165\nsamples = 5\nvalue = [10, 1]", fillcolor="#e88e4d"] ;
112 -> 116 ;
117 [label="gini = 0.0\nsamples = 4\nvalue = [10, 0]", fillcolor="#e58139"] ;
116 -> 117 ;
118 [label="gini = 0.0\nsamples = 1\nvalue = [0, 1]", fillcolor="#399de5"] ;
116 -> 118 ;
119 [label="DiabetesPedigreeFunction <= 0.264\ngini = 0.278\nsamples = 5\nvalue = [1, 5]", fillcolor="#61b1ea"] ;
109 -> 119 ;
120 [label="gini = 0.0\nsamples = 3\nvalue = [0, 4]", fillcolor="#399de5"] ;
119 -> 120 ;
121 [label="Age <= 57.5\ngini = 0.5\nsamples = 2\nvalue = [1, 1]", fillcolor="#ffffff"] ;
119 -> 121 ;
122 [label="gini = 0.0\nsamples = 1\nvalue = [1, 0]", fillcolor="#e58139"] ;
121 -> 122 ;
123 [label="gini = 0.0\nsamples = 1\nvalue = [0, 1]", fillcolor="#399de5"] ;
121 -> 123 ;
124 [label="gini = 0.0\nsamples = 6\nvalue = [0, 11]", fillcolor="#399de5"] ;
108 -> 124 ;
125 [label="Pregnancies <= 7.5\ngini = 0.383\nsamples = 75\nvalue = [32, 92]", fillcolor="#7ebfee"] ;
93 -> 125 ;
126 [label="BloodPressure <= 49.0\ngini = 0.42\nsamples = 59\nvalue = [30, 70]", fillcolor="#8ec7f0"] ;
125 -> 126 ;
127 [label="gini = 0.0\nsamples = 5\nvalue = [0, 12]", fillcolor="#399de5"] ;
126 -> 127 ;
128 [label="DiabetesPedigreeFunction <= 0.369\ngini = 0.449\nsamples = 54\nvalue = [30, 58]", fillcolor="#9fd0f2"] ;
126 -> 128 ;
129 [label="SkinThickness <= 29.5\ngini = 0.091\nsamples = 13\nvalue = [1, 20]", fillcolor="#43a2e6"] ;
128 -> 129 ;
130 [label="Glucose <= 151.5\ngini = 0.278\nsamples = 5\nvalue = [1, 5]", fillcolor="#61b1ea"] ;
129 -> 130 ;
131 [label="gini = 0.0\nsamples = 3\nvalue = [0, 4]", fillcolor="#399de5"] ;
130 -> 131 ;
132 [label="Age <= 33.0\ngini = 0.5\nsamples = 2\nvalue = [1, 1]", fillcolor="#ffffff"] ;
130 -> 132 ;
133 [label="gini = 0.0\nsamples = 1\nvalue = [0, 1]", fillcolor="#399de5"] ;
132 -> 133 ;
134 [label="gini = 0.0\nsamples = 1\nvalue = [1, 0]", fillcolor="#e58139"] ;
132 -> 134 ;
135 [label="gini = 0.0\nsamples = 8\nvalue = [0, 15]", fillcolor="#399de5"] ;
129 -> 135 ;
136 [label="Age <= 49.5\ngini = 0.491\nsamples = 41\nvalue = [29, 38]", fillcolor="#d0e8f9"] ;
128 -> 136 ;
137 [label="Age <= 40.5\ngini = 0.5\nsamples = 36\nvalue = [29, 30]", fillcolor="#f8fcfe"] ;
136 -> 137 ;
138 [label="Insulin <= 199.5\ngini = 0.48\nsamples = 32\nvalue = [20, 30]", fillcolor="#bddef6"] ;
137 -> 138 ;
139 [label="Age <= 30.0\ngini = 0.438\nsamples = 24\nvalue = [12, 25]", fillcolor="#98ccf1"] ;
138 -> 139 ;
140 [label="BloodPressure <= 73.0\ngini = 0.499\nsamples = 14\nvalue = [10, 11]", fillcolor="#edf6fd"] ;
139 -> 140 ;
141 [label="SkinThickness <= 40.5\ngini = 0.337\nsamples = 9\nvalue = [3, 11]", fillcolor="#6fb8ec"] ;
140 -> 141 ;
142 [label="SkinThickness <= 11.5\ngini = 0.26\nsamples = 8\nvalue = [2, 11]", fillcolor="#5dafea"] ;
141 -> 142 ;
143 [label="Glucose <= 140.0\ngini = 0.48\nsamples = 3\nvalue = [2, 3]", fillcolor="#bddef6"] ;
142 -> 143 ;
144 [label="gini = 0.0\nsamples = 1\nvalue = [0, 2]", fillcolor="#399de5"] ;
143 -> 144 ;
145 [label="DiabetesPedigreeFunction <= 0.522\ngini = 0.444\nsamples = 2\nvalue = [2, 1]", fillcolor="#f2c09c"] ;
143 -> 145 ;
146 [label="gini = 0.0\nsamples = 1\nvalue = [0, 1]", fillcolor="#399de5"] ;
145 -> 146 ;
147 [label="gini = 0.0\nsamples = 1\nvalue = [2, 0]", fillcolor="#e58139"] ;
145 -> 147 ;
148 [label="gini = 0.0\nsamples = 5\nvalue = [0, 8]", fillcolor="#399de5"] ;
142 -> 148 ;
149 [label="gini = 0.0\nsamples = 1\nvalue = [1, 0]", fillcolor="#e58139"] ;
141 -> 149 ;
150 [label="gini = 0.0\nsamples = 5\nvalue = [7, 0]", fillcolor="#e58139"] ;
140 -> 150 ;
151 [label="Age <= 38.0\ngini = 0.219\nsamples = 10\nvalue = [2, 14]", fillcolor="#55abe9"] ;
139 -> 151 ;
152 [label="gini = 0.0\nsamples = 7\nvalue = [0, 13]", fillcolor="#399de5"] ;
151 -> 152 ;
153 [label="Glucose <= 157.0\ngini = 0.444\nsamples = 3\nvalue = [2, 1]", fillcolor="#f2c09c"] ;
151 -> 153 ;
154 [label="gini = 0.0\nsamples = 2\nvalue = [2, 0]", fillcolor="#e58139"] ;
153 -> 154 ;
155 [label="gini = 0.0\nsamples = 1\nvalue = [0, 1]", fillcolor="#399de5"] ;
153 -> 155 ;
156 [label="Glucose <= 168.5\ngini = 0.473\nsamples = 8\nvalue = [8, 5]", fillcolor="#f5d0b5"] ;
138 -> 156 ;
157 [label="gini = 0.0\nsamples = 4\nvalue = [6, 0]", fillcolor="#e58139"] ;
156 -> 157 ;
158 [label="BloodPressure <= 59.0\ngini = 0.408\nsamples = 4\nvalue = [2, 5]", fillcolor="#88c4ef"] ;
156 -> 158 ;
159 [label="gini = 0.0\nsamples = 1\nvalue = [1, 0]", fillcolor="#e58139"] ;
158 -> 159 ;
160 [label="Age <= 30.0\ngini = 0.278\nsamples = 3\nvalue = [1, 5]", fillcolor="#61b1ea"] ;
158 -> 160 ;
161 [label="gini = 0.0\nsamples = 2\nvalue = [0, 5]", fillcolor="#399de5"] ;
160 -> 161 ;
162 [label="gini = 0.0\nsamples = 1\nvalue = [1, 0]", fillcolor="#e58139"] ;
160 -> 162 ;
163 [label="gini = 0.0\nsamples = 4\nvalue = [9, 0]", fillcolor="#e58139"] ;
137 -> 163 ;
164 [label="gini = 0.0\nsamples = 5\nvalue = [0, 8]", fillcolor="#399de5"] ;
136 -> 164 ;
165 [label="Age <= 54.0\ngini = 0.153\nsamples = 16\nvalue = [2, 22]", fillcolor="#4ba6e7"] ;
125 -> 165 ;
166 [label="Pregnancies <= 12.0\ngini = 0.1\nsamples = 13\nvalue = [1, 18]", fillcolor="#44a2e6"] ;
165 -> 166 ;
167 [label="gini = 0.0\nsamples = 11\nvalue = [0, 16]", fillcolor="#399de5"] ;
166 -> 167 ;
168 [label="DiabetesPedigreeFunction <= 0.872\ngini = 0.444\nsamples = 2\nvalue = [1, 2]", fillcolor="#9ccef2"] ;
166 -> 168 ;
169 [label="gini = 0.0\nsamples = 1\nvalue = [0, 2]", fillcolor="#399de5"] ;
168 -> 169 ;
170 [label="gini = 0.0\nsamples = 1\nvalue = [1, 0]", fillcolor="#e58139"] ;
168 -> 170 ;
171 [label="Age <= 57.5\ngini = 0.32\nsamples = 3\nvalue = [1, 4]", fillcolor="#6ab6ec"] ;
165 -> 171 ;
172 [label="gini = 0.0\nsamples = 1\nvalue = [1, 0]", fillcolor="#e58139"] ;
171 -> 172 ;
173 [label="gini = 0.0\nsamples = 2\nvalue = [0, 4]", fillcolor="#399de5"] ;
171 -> 173 ;
174 [label="BloodPressure <= 85.0\ngini = 0.337\nsamples = 10\nvalue = [11, 3]", fillcolor="#eca36f"] ;
92 -> 174 ;
175 [label="Glucose <= 195.5\ngini = 0.153\nsamples = 9\nvalue = [11, 1]", fillcolor="#e78c4b"] ;
174 -> 175 ;
176 [label="gini = 0.0\nsamples = 8\nvalue = [11, 0]", fillcolor="#e58139"] ;
175 -> 176 ;
177 [label="gini = 0.0\nsamples = 1\nvalue = [0, 1]", fillcolor="#399de5"] ;
175 -> 177 ;
178 [label="gini = 0.0\nsamples = 1\nvalue = [0, 2]", fillcolor="#399de5"] ;
174 -> 178 ;
}